digraph Tree {
node [shape=box] ;
0 [label="X[7] <= 0.432\nmse = 3747654.435\nsamples = 731\nvalue = 4504.349"] ;
1 [label="X[1] <= 0.5\nmse = 2241571.905\nsamples = 296\nvalue = 3037.807"] ;
0 -> 1 [labeldistance=2.5, labelangle=45, headlabel="True"] ;
2 [label="X[0] <= 3.0\nmse = 1039088.724\nsamples = 157\nvalue = 2227.229"] ;
1 -> 2 ;
3 [label="X[2] <= 2.5\nmse = 344731.62\nsamples = 108\nvalue = 1711.139"] ;
2 -> 3 ;
4 [label="X[2] <= 1.5\nmse = 152891.098\nsamples = 57\nvalue = 1421.088"] ;
3 -> 4 ;
5 [label="X[8] <= 0.687\nmse = 134231.7\nsamples = 31\nvalue = 1231.903"] ;
4 -> 5 ;
6 [label="mse = 85552.578\nsamples = 23\nvalue = 1342.174"] ;
5 -> 6 ;
7 [label="mse = 138718.359\nsamples = 8\nvalue = 914.875"] ;
5 -> 7 ;
8 [label="X[6] <= 1.5\nmse = 81585.149\nsamples = 26\nvalue = 1646.654"] ;
4 -> 8 ;
9 [label="mse = 60358.533\nsamples = 17\nvalue = 1752.235"] ;
8 -> 9 ;
10 [label="mse = 60850.617\nsamples = 9\nvalue = 1447.222"] ;
8 -> 10 ;
11 [label="X[8] <= 0.883\nmse = 360025.0\nsamples = 51\nvalue = 2035.314"] ;
3 -> 11 ;
12 [label="X[7] <= 0.39\nmse = 301338.604\nsamples = 48\nvalue = 2098.25"] ;
11 -> 12 ;
13 [label="mse = 279579.336\nsamples = 38\nvalue = 1983.921"] ;
12 -> 13 ;
14 [label="mse = 145606.81\nsamples = 10\nvalue = 2532.7"] ;
12 -> 14 ;
15 [label="X[5] <= 0.5\nmse = 221622.222\nsamples = 3\nvalue = 1028.333"] ;
11 -> 15 ;
16 [label="mse = 9025.0\nsamples = 2\nvalue = 700.0"] ;
15 -> 16 ;
17 [label="mse = 0.0\nsamples = 1\nvalue = 1685.0"] ;
15 -> 17 ;
18 [label="X[8] <= 0.855\nmse = 688534.317\nsamples = 49\nvalue = 3364.735"] ;
2 -> 18 ;
19 [label="X[7] <= 0.385\nmse = 325352.029\nsamples = 46\nvalue = 3520.283"] ;
18 -> 19 ;
20 [label="X[3] <= 0.5\nmse = 269452.454\nsamples = 33\nvalue = 3357.697"] ;
19 -> 20 ;
21 [label="mse = 171338.57\nsamples = 31\nvalue = 3417.452"] ;
20 -> 21 ;
22 [label="mse = 877032.25\nsamples = 2\nvalue = 2431.5"] ;
20 -> 22 ;
23 [label="X[9] <= 0.282\nmse = 229813.385\nsamples = 13\nvalue = 3933.0"] ;
19 -> 23 ;
24 [label="mse = 44754.722\nsamples = 12\nvalue = 4058.333"] ;
23 -> 24 ;
25 [label="mse = 0.0\nsamples = 1\nvalue = 2429.0"] ;
23 -> 25 ;
26 [label="X[7] <= 0.413\nmse = 197787.556\nsamples = 3\nvalue = 979.667"] ;
18 -> 26 ;
27 [label="X[9] <= 0.309\nmse = 1521.0\nsamples = 2\nvalue = 666.0"] ;
26 -> 27 ;
28 [label="mse = 0.0\nsamples = 1\nvalue = 705.0"] ;
27 -> 28 ;
29 [label="mse = 0.0\nsamples = 1\nvalue = 627.0"] ;
27 -> 29 ;
30 [label="mse = 0.0\nsamples = 1\nvalue = 1607.0"] ;
26 -> 30 ;
31 [label="X[0] <= 1.5\nmse = 2019428.703\nsamples = 139\nvalue = 3953.353"] ;
1 -> 31 ;
32 [label="X[7] <= 0.28\nmse = 1041295.254\nsamples = 78\nvalue = 3170.949"] ;
31 -> 32 ;
33 [label="X[8] <= 0.727\nmse = 649926.408\nsamples = 37\nvalue = 2499.568"] ;
32 -> 33 ;
34 [label="X[9] <= 0.23\nmse = 436816.168\nsamples = 28\nvalue = 2746.214"] ;
33 -> 34 ;
35 [label="mse = 290018.052\nsamples = 18\nvalue = 3055.944"] ;
34 -> 35 ;
36 [label="mse = 217551.61\nsamples = 10\nvalue = 2188.7"] ;
34 -> 36 ;
37 [label="X[2] <= 7.0\nmse = 534853.951\nsamples = 9\nvalue = 1732.222"] ;
33 -> 37 ;
38 [label="mse = 216074.0\nsamples = 6\nvalue = 2148.0"] ;
37 -> 38 ;
39 [label="mse = 135186.889\nsamples = 3\nvalue = 900.667"] ;
37 -> 39 ;
40 [label="X[3] <= 0.5\nmse = 620613.751\nsamples = 41\nvalue = 3776.829"] ;
32 -> 40 ;
41 [label="X[8] <= 0.645\nmse = 440386.069\nsamples = 40\nvalue = 3845.925"] ;
40 -> 41 ;
42 [label="mse = 256087.995\nsamples = 28\nvalue = 4062.929"] ;
41 -> 42 ;
43 [label="mse = 504155.076\nsamples = 12\nvalue = 3339.583"] ;
41 -> 43 ;
44 [label="mse = 0.0\nsamples = 1\nvalue = 1013.0"] ;
40 -> 44 ;
45 [label="X[8] <= 0.765\nmse = 1486498.519\nsamples = 61\nvalue = 4953.803"] ;
31 -> 45 ;
46 [label="X[7] <= 0.28\nmse = 939374.273\nsamples = 51\nvalue = 5213.039"] ;
45 -> 46 ;
47 [label="X[2] <= 11.5\nmse = 2036401.556\nsamples = 3\nvalue = 3358.667"] ;
46 -> 47 ;
48 [label="mse = 5402.25\nsamples = 2\nvalue = 2350.5"] ;
47 -> 48 ;
49 [label="mse = 0.0\nsamples = 1\nvalue = 5375.0"] ;
47 -> 49 ;
50 [label="X[9] <= 0.055\nmse = 642459.059\nsamples = 48\nvalue = 5328.938"] ;
46 -> 50 ;
51 [label="mse = 1771561.0\nsamples = 2\nvalue = 3756.0"] ;
50 -> 51 ;
52 [label="mse = 481119.698\nsamples = 46\nvalue = 5397.326"] ;
50 -> 52 ;
53 [label="X[2] <= 10.5\nmse = 2186138.41\nsamples = 10\nvalue = 3631.7"] ;
45 -> 53 ;
54 [label="X[8] <= 0.796\nmse = 1030406.0\nsamples = 3\nvalue = 1779.0"] ;
53 -> 54 ;
55 [label="mse = 0.0\nsamples = 1\nvalue = 3214.0"] ;
54 -> 55 ;
56 [label="mse = 1190.25\nsamples = 2\nvalue = 1061.5"] ;
54 -> 56 ;
57 [label="X[4] <= 4.0\nmse = 579923.347\nsamples = 7\nvalue = 4425.714"] ;
53 -> 57 ;
58 [label="mse = 279663.44\nsamples = 5\nvalue = 4041.4"] ;
57 -> 58 ;
59 [label="mse = 38220.25\nsamples = 2\nvalue = 5386.5"] ;
57 -> 59 ;
60 [label="X[1] <= 0.5\nmse = 2313139.278\nsamples = 435\nvalue = 5502.271"] ;
0 -> 60 [labeldistance=2.5, labelangle=-45, headlabel="False"] ;
61 [label="X[6] <= 2.5\nmse = 702662.922\nsamples = 208\nvalue = 4295.327"] ;
60 -> 61 ;
62 [label="X[2] <= 4.5\nmse = 563373.378\nsamples = 200\nvalue = 4374.32"] ;
61 -> 62 ;
63 [label="X[2] <= 3.5\nmse = 518045.359\nsamples = 24\nvalue = 3564.125"] ;
62 -> 63 ;
64 [label="X[7] <= 0.457\nmse = 76373.76\nsamples = 5\nvalue = 2892.2"] ;
63 -> 64 ;
65 [label="mse = 12996.0\nsamples = 2\nvalue = 2589.0"] ;
64 -> 65 ;
66 [label="mse = 16480.889\nsamples = 3\nvalue = 3094.333"] ;
64 -> 66 ;
67 [label="X[4] <= 5.5\nmse = 484197.208\nsamples = 19\nvalue = 3740.947"] ;
63 -> 67 ;
68 [label="mse = 378802.381\nsamples = 17\nvalue = 3631.176"] ;
67 -> 68 ;
69 [label="mse = 407044.0\nsamples = 2\nvalue = 4674.0"] ;
67 -> 69 ;
70 [label="X[8] <= 0.756\nmse = 467837.125\nsamples = 176\nvalue = 4484.801"] ;
62 -> 70 ;
71 [label="X[7] <= 0.807\nmse = 290703.961\nsamples = 140\nvalue = 4636.157"] ;
70 -> 71 ;
72 [label="mse = 254571.711\nsamples = 134\nvalue = 4680.888"] ;
71 -> 72 ;
73 [label="mse = 54989.806\nsamples = 6\nvalue = 3637.167"] ;
71 -> 73 ;
74 [label="X[9] <= 0.307\nmse = 721141.323\nsamples = 36\nvalue = 3896.194"] ;
70 -> 74 ;
75 [label="mse = 469396.045\nsamples = 34\nvalue = 4017.118"] ;
74 -> 75 ;
76 [label="mse = 526350.25\nsamples = 2\nvalue = 1840.5"] ;
74 -> 76 ;
77 [label="X[4] <= 2.5\nmse = 128962.5\nsamples = 8\nvalue = 2320.5"] ;
61 -> 77 ;
78 [label="X[2] <= 11.5\nmse = 5080.222\nsamples = 3\nvalue = 2689.667"] ;
77 -> 78 ;
79 [label="X[4] <= 1.5\nmse = 756.25\nsamples = 2\nvalue = 2737.5"] ;
78 -> 79 ;
80 [label="mse = 0.0\nsamples = 1\nvalue = 2765.0"] ;
79 -> 80 ;
81 [label="mse = 0.0\nsamples = 1\nvalue = 2710.0"] ;
79 -> 81 ;
82 [label="mse = 0.0\nsamples = 1\nvalue = 2594.0"] ;
78 -> 82 ;
83 [label="X[8] <= 0.912\nmse = 72459.2\nsamples = 5\nvalue = 2099.0"] ;
77 -> 83 ;
84 [label="X[8] <= 0.901\nmse = 16.0\nsamples = 2\nvalue = 2420.0"] ;
83 -> 84 ;
85 [label="mse = 0.0\nsamples = 1\nvalue = 2424.0"] ;
84 -> 85 ;
86 [label="mse = 0.0\nsamples = 1\nvalue = 2416.0"] ;
84 -> 86 ;
87 [label="X[8] <= 0.924\nmse = 6264.667\nsamples = 3\nvalue = 1885.0"] ;
83 -> 87 ;
88 [label="mse = 0.0\nsamples = 1\nvalue = 1996.0"] ;
87 -> 88 ;
89 [label="mse = 156.25\nsamples = 2\nvalue = 1829.5"] ;
87 -> 89 ;
90 [label="X[8] <= 0.832\nmse = 1230966.341\nsamples = 227\nvalue = 6608.194"] ;
60 -> 90 ;
91 [label="X[2] <= 5.5\nmse = 893302.284\nsamples = 216\nvalue = 6726.176"] ;
90 -> 91 ;
92 [label="X[4] <= 4.5\nmse = 883909.16\nsamples = 71\nvalue = 6221.282"] ;
91 -> 92 ;
93 [label="X[6] <= 1.5\nmse = 714903.494\nsamples = 55\nvalue = 5960.182"] ;
92 -> 93 ;
94 [label="mse = 457016.637\nsamples = 38\nvalue = 6183.684"] ;
93 -> 94 ;
95 [label="mse = 930102.36\nsamples = 17\nvalue = 5460.588"] ;
93 -> 95 ;
96 [label="X[9] <= 0.139\nmse = 424959.402\nsamples = 16\nvalue = 7118.812"] ;
92 -> 96 ;
97 [label="mse = 132403.6\nsamples = 5\nvalue = 7912.0"] ;
96 -> 97 ;
98 [label="mse = 141974.744\nsamples = 11\nvalue = 6758.273"] ;
96 -> 98 ;
99 [label="X[7] <= 0.765\nmse = 711959.923\nsamples = 145\nvalue = 6973.4"] ;
91 -> 99 ;
100 [label="X[8] <= 0.694\nmse = 611536.926\nsamples = 124\nvalue = 7112.54"] ;
99 -> 100 ;
101 [label="mse = 279698.73\nsamples = 90\nvalue = 7366.678"] ;
100 -> 101 ;
102 [label="mse = 866421.734\nsamples = 34\nvalue = 6439.824"] ;
100 -> 102 ;
103 [label="X[4] <= 0.5\nmse = 515606.535\nsamples = 21\nvalue = 6151.81"] ;
99 -> 103 ;
104 [label="mse = 152181.556\nsamples = 3\nvalue = 5222.333"] ;
103 -> 104 ;
105 [label="mse = 408191.756\nsamples = 18\nvalue = 6306.722"] ;
103 -> 105 ;
106 [label="X[9] <= 0.358\nmse = 2220845.884\nsamples = 11\nvalue = 4291.455"] ;
90 -> 106 ;
107 [label="X[7] <= 0.638\nmse = 437823.84\nsamples = 10\nvalue = 4718.4"] ;
106 -> 107 ;
108 [label="X[4] <= 1.5\nmse = 308735.429\nsamples = 7\nvalue = 4441.0"] ;
107 -> 108 ;
109 [label="mse = 7569.0\nsamples = 2\nvalue = 5083.0"] ;
108 -> 109 ;
110 [label="mse = 198390.16\nsamples = 5\nvalue = 4184.2"] ;
108 -> 110 ;
111 [label="X[9] <= 0.212\nmse = 140524.222\nsamples = 3\nvalue = 5365.667"] ;
107 -> 111 ;
112 [label="mse = 0.0\nsamples = 1\nvalue = 5870.0"] ;
111 -> 112 ;
113 [label="mse = 20022.25\nsamples = 2\nvalue = 5113.5"] ;
111 -> 113 ;
114 [label="mse = 0.0\nsamples = 1\nvalue = 22.0"] ;
106 -> 114 ;
}