digraph Tree {
node [shape=box] ;
0 [label="X[7] <= 0.056\ngini = 0.467\nsamples = 455\nvalue = [286, 169]"] ;
1 [label="X[22] <= 107.2\ngini = 0.128\nsamples = 291\nvalue = [271, 20]"] ;
0 -> 1 [labeldistance=2.5, labelangle=45, headlabel="True"] ;
2 [label="X[21] <= 39.075\ngini = 0.023\nsamples = 258\nvalue = [255, 3]"] ;
1 -> 2 ;
3 [label="X[12] <= 6.54\ngini = 0.015\nsamples = 257\nvalue = [255, 2]"] ;
2 -> 3 ;
4 [label="X[21] <= 33.35\ngini = 0.008\nsamples = 256\nvalue = [255, 1]"] ;
3 -> 4 ;
5 [label="gini = 0.0\nsamples = 242\nvalue = [242, 0]"] ;
4 -> 5 ;
6 [label="X[22] <= 91.665\ngini = 0.133\nsamples = 14\nvalue = [13, 1]"] ;
4 -> 6 ;
7 [label="gini = 0.0\nsamples = 13\nvalue = [13, 0]"] ;
6 -> 7 ;
8 [label="gini = 0.0\nsamples = 1\nvalue = [0, 1]"] ;
6 -> 8 ;
9 [label="gini = 0.0\nsamples = 1\nvalue = [0, 1]"] ;
3 -> 9 ;
10 [label="gini = 0.0\nsamples = 1\nvalue = [0, 1]"] ;
2 -> 10 ;
11 [label="X[21] <= 20.045\ngini = 0.5\nsamples = 33\nvalue = [16, 17]"] ;
1 -> 11 ;
12 [label="gini = 0.0\nsamples = 10\nvalue = [10, 0]"] ;
11 -> 12 ;
13 [label="X[19] <= 0.004\ngini = 0.386\nsamples = 23\nvalue = [6, 17]"] ;
11 -> 13 ;
14 [label="X[1] <= 19.86\ngini = 0.255\nsamples = 20\nvalue = [3, 17]"] ;
13 -> 14 ;
15 [label="X[8] <= 0.175\ngini = 0.49\nsamples = 7\nvalue = [3, 4]"] ;
14 -> 15 ;
16 [label="gini = 0.0\nsamples = 3\nvalue = [0, 3]"] ;
15 -> 16 ;
17 [label="X[18] <= 0.02\ngini = 0.375\nsamples = 4\nvalue = [3, 1]"] ;
15 -> 17 ;
18 [label="gini = 0.0\nsamples = 3\nvalue = [3, 0]"] ;
17 -> 18 ;
19 [label="gini = 0.0\nsamples = 1\nvalue = [0, 1]"] ;
17 -> 19 ;
20 [label="gini = 0.0\nsamples = 13\nvalue = [0, 13]"] ;
14 -> 20 ;
21 [label="gini = 0.0\nsamples = 3\nvalue = [3, 0]"] ;
13 -> 21 ;
22 [label="X[21] <= 20.875\ngini = 0.166\nsamples = 164\nvalue = [15, 149]"] ;
0 -> 22 [labeldistance=2.5, labelangle=-45, headlabel="False"] ;
23 [label="X[7] <= 0.091\ngini = 0.408\nsamples = 14\nvalue = [10, 4]"] ;
22 -> 23 ;
24 [label="gini = 0.0\nsamples = 10\nvalue = [10, 0]"] ;
23 -> 24 ;
25 [label="gini = 0.0\nsamples = 4\nvalue = [0, 4]"] ;
23 -> 25 ;
26 [label="X[22] <= 97.155\ngini = 0.064\nsamples = 150\nvalue = [5, 145]"] ;
22 -> 26 ;
27 [label="X[21] <= 25.925\ngini = 0.49\nsamples = 7\nvalue = [4, 3]"] ;
26 -> 27 ;
28 [label="gini = 0.0\nsamples = 4\nvalue = [4, 0]"] ;
27 -> 28 ;
29 [label="gini = 0.0\nsamples = 3\nvalue = [0, 3]"] ;
27 -> 29 ;
30 [label="X[24] <= 0.096\ngini = 0.014\nsamples = 143\nvalue = [1, 142]"] ;
26 -> 30 ;
31 [label="gini = 0.0\nsamples = 1\nvalue = [1, 0]"] ;
30 -> 31 ;
32 [label="gini = 0.0\nsamples = 142\nvalue = [0, 142]"] ;
30 -> 32 ;
}